<?xml version="1.0"?>
<opencv_storage>
<stage5>
  <maxWeakCount>12</maxWeakCount>
  <stageThreshold>-1.1452732086181641e+00</stageThreshold>
  <weakClassifiers>
    <_>
      <internalNodes>
        0 -1 5803 -8.5581928491592407e-02</internalNodes>
      <leafValues>
        5.0698858499526978e-01 -4.3703705072402954e-01</leafValues></_>
    <_>
      <internalNodes>
        0 -1 51196 -1.9185703713446856e-03</internalNodes>
      <leafValues>
        2.5993052124977112e-01 -5.5017948150634766e-01</leafValues></_>
    <_>
      <internalNodes>
        0 -1 46803 -9.9878907203674316e-02</internalNodes>
      <leafValues>
        3.7733736634254456e-01 -4.3861162662506104e-01</leafValues></_>
    <_>
      <internalNodes>
        0 -1 4520 1.8848666548728943e-01</internalNodes>
      <leafValues>
        -2.9157391190528870e-01 4.4686749577522278e-01</leafValues></_>
    <_>
      <internalNodes>
        0 -1 8 7.7667506411671638e-04</internalNodes>
      <leafValues>
        -3.6430731415748596e-01 3.9718967676162720e-01</leafValues></_>
    <_>
      <internalNodes>
        0 -1 34525 -5.3025938570499420e-02</internalNodes>
      <leafValues>
        -8.2499319314956665e-01 1.6538313031196594e-01</leafValues></_>
    <_>
      <internalNodes>
        0 -1 64695 1.9004499539732933e-02</internalNodes>
      <leafValues>
        -2.3443400859832764e-01 5.5387639999389648e-01</leafValues></_>
    <_>
      <internalNodes>
        0 -1 45385 -5.8151048142462969e-04</internalNodes>
      <leafValues>
        3.2180681824684143e-01 -3.4284073114395142e-01</leafValues></_>
    <_>
      <internalNodes>
        0 -1 23433 7.3214713484048843e-03</internalNodes>
      <leafValues>
        -3.7427908182144165e-01 3.1264665722846985e-01</leafValues></_>
    <_>
      <internalNodes>
        0 -1 47020 -9.2105253133922815e-04</internalNodes>
      <leafValues>
        4.6455174684524536e-01 -2.4972018599510193e-01</leafValues></_>
    <_>
      <internalNodes>
        0 -1 30170 -2.3215505480766296e-01</internalNodes>
      <leafValues>
        1.2529230117797852e-01 -9.4030982255935669e-01</leafValues></_>
    <_>
      <internalNodes>
        0 -1 5310 -1.0421632975339890e-01</internalNodes>
      <leafValues>
        -2.6388406753540039e-01 4.4293257594108582e-01</leafValues></_></weakClassifiers></stage5>
</opencv_storage>
