<?xml version="1.0"?>
<opencv_storage>
<stage4>
  <maxWeakCount>9</maxWeakCount>
  <stageThreshold>-1.4696587324142456e+00</stageThreshold>
  <weakClassifiers>
    <_>
      <internalNodes>
        0 -1 34806 -1.0501915588974953e-02</internalNodes>
      <leafValues>
        3.3711048960685730e-01 -5.8635395765304565e-01</leafValues></_>
    <_>
      <internalNodes>
        0 -1 67511 -4.4144073035567999e-04</internalNodes>
      <leafValues>
        4.3753871321678162e-01 -4.2622616887092590e-01</leafValues></_>
    <_>
      <internalNodes>
        0 -1 62306 -2.4770547170192003e-03</internalNodes>
      <leafValues>
        4.6842724084854126e-01 -4.4152784347534180e-01</leafValues></_>
    <_>
      <internalNodes>
        0 -1 7231 4.8972200602293015e-03</internalNodes>
      <leafValues>
        -3.2557412981987000e-01 4.8913449048995972e-01</leafValues></_>
    <_>
      <internalNodes>
        0 -1 4715 -1.7941474914550781e-01</internalNodes>
      <leafValues>
        -9.2024970054626465e-01 1.6804504394531250e-01</leafValues></_>
    <_>
      <internalNodes>
        0 -1 16627 -3.1463477015495300e-01</internalNodes>
      <leafValues>
        1.4301861822605133e-01 -9.7812783718109131e-01</leafValues></_>
    <_>
      <internalNodes>
        0 -1 35248 -2.7737445197999477e-03</internalNodes>
      <leafValues>
        3.7667116522789001e-01 -4.4778889417648315e-01</leafValues></_>
    <_>
      <internalNodes>
        0 -1 68972 -4.9229683354496956e-03</internalNodes>
      <leafValues>
        -2.0785336196422577e-01 7.2245055437088013e-01</leafValues></_>
    <_>
      <internalNodes>
        0 -1 28320 -2.2462554275989532e-02</internalNodes>
      <leafValues>
        8.2682210206985474e-01 -2.0916301012039185e-01</leafValues></_></weakClassifiers></stage4>
</opencv_storage>
